0.26794773478022715,-0.8122826874193669,0.21048888746851727,-1.1393123183377676,-1.3116387091236017,0.09635766001939175,1.213880879357979,-0.838276041739569,1.0592550023061191,0.8714964256669229,1.2189135790163468,-0.399597934811802,1.4856662756807903,2.6499964205702438,1.392310641159153,0.5986743738037534,-0.24295774508810994,0.0953230028514261,0.002498007043079539,0.6499187159524861,0.5475116577174172,-1.4454340344178742,-0.9375221051158574,-0.06499857938453438,-0.14143613543546546,0.5199527361757292,-0.9769543272195954,-2.600613205566422,-0.14794697321807465,0.35087981614984526,0.19720395508309663,0.7858818685316248,0.35760272746056193,-1.8968461131770196,0.3657431374737437,-0.4907303809070844,0.6733143205507601,-0.10838722493465831,0.12006865470350432,-0.2839751410455299,-0.36461749622559786,0.5538099468581734,1.3878324143227014,-1.0608285807452449,0.5701866203282049,-0.46769165251676587,0.7980351806954896,-0.22793017432687807,-0.09666130420994842,2.511939860503512,-1.031315099471008,1.3244393547366486,-0.5992665700054878,1.1219159753501486,-0.39472731643350456,-0.24421527382649758,-0.0177559109250483,-0.24343695872056842,0.26765504718815375,1.0632008868900364,1.5078168549178812,-0.5314536485815269,-0.6368540666146423,-0.5913940589741672,0.615900533608904,-0.4545457313805086,2.2267128194431214,0.30175381844488425,-0.015062319628456082,0.8089529594793302,-0.5060525435921748,-0.920624780332941,1.4111397611331302,-0.3998829886931005,0.504828408826995,0.19537304553374932,1.3497632029442292,1.7949564320295823,-0.7043850171486982,0.027063375753008323,0.5482240706822524,-0.6260739904687879,-1.1577271779700662,0.2564596923135005,-0.5504346138771016,-1.0615490589777519,-0.7659686135180557,1.2866739549944788,0.6987205248981035,0.8244029001360436,0.0015516740735868262,0.5314931365580855,0.007663150943037099,1.5750433034101075,0.22140359678142707,-0.8357591217117707,-0.6208348167051054,0.45368411363300565,-0.8326532787258433,1.584156630634193,-0.5551349243991475,0.26475181501966527,0.4898659977663154,-0.915822404026184,0.4008588339282979,0.7485975706532467,-1.3665353075089348,1.29311515074009,-1.606299994876963,-2.3353022698834573,-1.1850746973005168,0.9014578455812947,-0.08639445026430806,-1.272831507794242,-0.37824459914433267,-0.22522091403874928,-1.0016358975938293,1.5990947979329986,1.095641968102197,0.43144281609255747,1.0748139826057983,-2.1232053388641234,-0.8211049556497114,0.6848485281182085,0.4900042837651299,0.10424180059242535,-0.8354063521046965,0.034481772358918535,-0.4209391658550109,0.8427581886436118,1.5200042517988135,-0.514682093327666,0.06721018700867659,1.0947932586518434,-0.917347258077735,0.17423285595789895,-0.3426223935067782,1.4020949315787263,0.18608452958316188,0.6484803917386718,-2.3048142497134707,-0.7725357332306865,-1.050651267507709,1.7457182033534366,0.20385582529704638,-1.5366892814117323,1.1590497225065501,-0.3254237400306762,-1.1105334739413815,-0.1253745585338873,0.5065725146919859,-0.319244082720838,1.4863518602583243,-0.5287982612683941,0.7012717003920949,0.3838960626868189,0.01638556140989354,0.7332914639898381,-0.7846916705488454,0.40200635864600603,0.9984579013431314,0.18036035529777422,0.8209205447576932,-0.017082495534946295,0.2793155001983218,-0.5118333075966129,0.8587113114785141,0.13342715470024064,0.1404101231206041,1.285477764051172,-0.46498567983941863,0.03809483257173776,0.2866106746054723,-0.3221178668290384,0.2872862050210299,1.5014068104247322,0.39546389364754064,0.32130794173914207,-1.2507322238452274,0.6663968087733486,0.4266467911628926,-0.37752409699559175,-1.87088090533729,-0.8389474562009279,-0.4292258894035391,-0.20902026871748272,-0.8029371416567866,2.2953238872396593,0.8721369984586328,2.1393751248741726,0.6815580702789078,2.009270026752328,-0.3986140168386464,-0.09540326189369755,-0.4762726471202366,-1.1862521183519514,-1.1180495937309745,-0.0721305448024434,0.2998267561439987,0.5451328639456612,0.7265854891653929,0.06616154898744761,0.09825300684736477,-1.5933749406576658,-0.00552130414367158,0.4973294414962934,-2.0288794395657015,0.3196807108051602,1.3064174811564246,0.4005257353054868,0.6961376359397552,-0.427813210747539,0.10041281116399632,0.31083499917076685,1.0473871330031221,-1.8677456918791162,0.44280474947843623,0.2424856804440168,-1.0978889747243556,0.12120493465324232,0.3533495067425199,-1.548722604207668,1.9941397219110082,-2.356999543443233,-1.7735701614551207,-0.9690120923694691,1.1737693954382933,0.3631812960149464,-0.22361273152713787,1.2900489881777493,-0.08311104341339895,0.14520759928308855,-1.1107147586444646,-0.3530840760779741,-0.47966312665032135,0.9655059806675037,1.7363123981822108,0.7193287012188674,-1.3305503279628978,0.5135416384847187,-0.7320664562560231,-0.5153697685308674,-1.750517313498,1.272586669568926,0.29046961197979543,0.6762220312491692,-1.3942332000093582,0.6812809724860848,0.5806965078668299,-0.17313937031796006,0.6330166844299305,-2.054053042375518,0.6082043298948948,-1.5418679746410993,0.07522968778163856,-0.7125571683632372,1.8990095664716171,0.1853167744041436,1.6393468689201725,1.002317489149206,-0.4939732492154388,-1.0800443144865728,-2.5100136789220704,-0.7298258541222966,-1.3425136843695014,0.6191102679423666,1.1036504672377332,1.4927940048138106,-1.3194871432763824,0.06542892726529834,0.7841076333107752,-0.38715427225607746,0.432114395831944,0.3286139607954676,0.10855724973035416,0.38520009805011685,1.687166446044932,-0.406584462927866,-0.8456317146610224,-0.25625409778038555,-0.2559083245913381,-1.5408532544699631,1.4331722542851038,0.17142190950070604,-1.0988984171001737,-0.6677971219255701,-1.4796499820525884,0.1312868028538117,0.5276404761855263,0.2859907547455144,1.0117218309562324,0.4826111417500591,0.9406964831132891,-0.5124553510667335,1.572443553583932,-0.16703106057329267,-0.2491287838478697,-1.3950840395109219,0.17141769911271137,0.8125448764551955,-0.4034455044640084,-1.063453228646996,0.0837456197990209,-0.37153409860733405,1.3299713052126136,-0.6744570650064977,-0.11935836683342475,-1.8173982589770645,-0.31336706226704064,-0.32063977910597846,0.5108178055950561,-0.4421876284977018,-2.032919992993415,-0.21013116283921351,0.6011232679026403,1.9453828526153127,-1.262356900948627,0.9375600293172447,-1.459952126425181,-1.5205198110863862,1.60727214589336,1.5158177609065022,1.5749482309392324,0.545080192742428,1.2970014830576864,0.273978398765574,-1.9935715690888454,0.7380345764892736,0.6942013203682442,0.2497223307718179,-0.19685334399199977,-1.6894545895216284,1.9255437274174778,0.3688806575055919,-1.01976287765844,-1.1234145634079367,0.33437227374742023,-0.38786890501812543,-1.2137241143806086,0.21996431662299648,0.5630461935203904,0.5135833258264676,0.3621662590090535,0.02118698814389819,1.3069184301377939,-0.2673186237469642,-0.03526253034830979,2.6743963401154773,1.1274380513637614,0.02610718799467382,0.4924154714604217,-2.1506497704570675,-1.4614681126660762,-0.8980680079738752,1.2706588479486447,-1.9878689155238318,0.4999087089625821,1.2491116370378808,-0.34311867183223477,1.4034444126900458,0.9609645463838543,-1.013663136586029,1.685806580418756,-0.19263514239997523,1.6064693254321734,-0.20006339333229511,-0.6349083366546935,-0.8008229661461499,-0.5073277841538965,-1.825597182477155,-0.6172738898917318,1.0939790258048918,-1.7713270883262964,-0.8183148429865842,-0.13290182727853983,0.756766715256157,1.3362171714328321,-1.4550287366589802,-1.3417028582535555,0.6980072064616504,-1.1009679350956139,0.652729531928314,-0.6461980321053142,0.1758758303133527,0.14237907283612472,0.8395983281485567,-0.4806952856394546,0.2826329139172875,-0.840376738355939,0.07720068148959568,-0.7028954382178466,2.2489504264141105,-0.7225869704443956,-1.0969878510671496,1.0037947080312797,1.0728884368438203,-1.014870061349397,1.8283737679346699,0.8795245135744092,0.008270193108332423,-0.23043691461007587,2.7601920212599147,0.7973796663464423,0.2664460168900717,1.0487687200277285,3.227925708625527,1.5613532890818522,-1.4898360586967083,-1.1812619291409896,0.6075472120631402,-2.4257927333652223,0.9556679502461907,-0.5586393662732669,0.3688583552489106,0.241353713263097,-0.7314153073058206,0.9728008279149525,0.27130149794444297,1.191118957415455,0.5033823077388545,-0.6774030147137097,-1.0415491016667533,1.7003211273627432,-0.9846366441076105,0.7415493184622773,-0.5764132724286296,0.6223296225819699,0.7614182485899953,1.4529585698534035,-0.2926671714505165,-0.7782640004965761,-0.46041921675771225,1.4863231376166535,0.6464259869007417,-0.30766665997575116,-0.5922236454649661,-0.433479898262156,0.3962066881430817,0.9772281044111092,-0.009595415687082946,-0.8095738090667772,0.2328683023506761,-0.5791783859387496,-2.310004376412865,-1.1302192990304345,0.38110125213586493,-0.055016091098272345,1.6118900017561606,2.6721702415587822,1.9456101607413776
1.6409984230578345,-0.5408097920908901,-0.9787200423978202,1.138191194466413,0.5483456317573123,-0.5815307089117315,-0.9603282384768509,0.40781036052888436,-1.4804810260723928,0.3695355734827795,-1.045340647258895,1.4380297575425658,0.3715622419408931,2.293173034516536,-0.8776477084652825
0.4132977630673836,0.8743482953994818,1.3700677985471033,0.7381388419434687,-0.9293606109907475,-0.7774127678883367,-1.4387904154753086,0.09187543575871011,-1.614499339451504,2.510659471022067,-0.7433967268416938,1.2910515104930298,1.117071629034633,-0.20919818621130012,-1.8006078807939667
-0.5585458619242305
